<?xml version="1.0"?>
<opencv_storage>
<my_svm type_id="opencv-ml-svm">
  <svm_type>C_SVC</svm_type>
  <kernel><type>LINEAR</type></kernel>
  <C>1.0000000000000001e-001</C>
  <term_criteria><epsilon>1.1920928955078125e-007</epsilon>
    <iterations>1000</iterations></term_criteria>
  <var_all>3780</var_all>
  <var_count>3780</var_count>
  <class_count>2</class_count>
  <class_labels type_id="opencv-matrix">
    <rows>1</rows>
    <cols>2</cols>
    <dt>i</dt>
    <data>
      0 1</data></class_labels>
  <sv_total>1</sv_total>
  <support_vectors>
    <_>
      1.17866725e-001 -2.60113925e-002 1.65514536e-002 1.06480449e-001
      1.28037363e-001 2.32336819e-001 1.20510915e-002 2.07153428e-002
      1.16940327e-001 1.76165581e-001 3.73026431e-002 1.61768161e-002
      -4.07890752e-002 1.35653973e-001 2.06743851e-001 -5.24728671e-002
      1.31620355e-002 9.71195102e-002 8.15322772e-002 -6.98007271e-002
      1.00842632e-001 3.88775878e-002 1.65990636e-001 3.78534384e-002
      5.06887399e-002 6.23106696e-002 1.05323762e-001 2.33105309e-002
      7.74114067e-003 2.72335447e-002 1.23480491e-001 6.32679416e-003
      9.54432879e-003 1.16176866e-001 -2.62828916e-003 3.37708183e-002
      1.68382525e-001 -1.46959000e-003 -9.32089984e-003 -4.50172871e-002
      2.41356775e-001 1.57457799e-001 -9.89805013e-002 3.14753503e-002
      8.22521076e-002 8.93692449e-002 -8.41986910e-002 -8.42140839e-002
      8.68609454e-003 4.52446379e-002 8.68593305e-002 -4.16141823e-002
      1.15417810e-002 6.98627681e-002 1.15200721e-001 6.31634369e-002
      3.34964655e-002 9.75470319e-002 1.59753144e-001 9.19136927e-002
      6.06807359e-002 4.75694761e-002 1.12965703e-001 7.79272988e-002
      6.88044704e-004 7.74865448e-002 -7.54714683e-002 4.80034761e-002
      1.35188535e-001 1.09958909e-001 5.73122948e-002 7.96658546e-002
      2.62074042e-002 -4.88973521e-002 -5.16559370e-002 -8.38356614e-002
      -2.61351317e-002 -1.61401043e-003 -1.29939541e-001
      -9.96986553e-002 7.35893995e-002 2.29873091e-001 1.16787188e-001
      -3.16504091e-002 2.75581330e-002 -8.74884278e-002 1.65794871e-003
      -4.81033288e-002 -9.18953493e-002 1.10079154e-001 5.99891692e-002
      8.02387577e-003 1.67355493e-001 8.01511407e-002 1.96737751e-001
      1.18676037e-001 2.07579639e-002 -2.40685928e-004 8.83951485e-002
      3.02175898e-002 1.35879248e-001 2.66745418e-001 1.27214536e-001
      1.48994356e-001 6.45798584e-003 -1.24110781e-001 -1.23679657e-002
      -5.99968433e-003 1.22200489e-001 1.46455184e-001 8.86638761e-002
      8.73476937e-002 -7.78806508e-002 1.73677281e-001 1.01681247e-001
      -4.14310358e-002 -1.06802983e-002 1.21468164e-001 2.66311944e-001
      7.23459423e-002 -7.33134300e-002 1.26150297e-002 -8.43580905e-003
      2.14120150e-002 -2.30304655e-002 -8.23130012e-002 4.32672389e-002
      7.19708130e-002 9.33378488e-002 -1.46630090e-002 -6.61896029e-003
      3.81283946e-002 -7.89224356e-003 -2.80510634e-003 9.10530705e-003
      2.42875647e-002 -9.47605297e-002 -1.10090345e-001 -7.84521699e-002
      -1.19773716e-001 -8.16383064e-002 8.72780196e-003 -3.72125627e-003
      -1.17902867e-001 5.16241975e-002 2.20404238e-001 6.93041161e-002
      5.35465926e-002 8.42197463e-002 -6.07940555e-002 -2.06718091e-002
      4.62293532e-003 -8.25353712e-002 5.79405911e-002 1.04611456e-001
      -4.95435819e-002 5.51137589e-002 6.44803867e-002 -2.53909919e-002
      -3.51452008e-002 5.63146919e-002 -1.07034929e-001 9.47770923e-002
      1.33632585e-001 -3.98136936e-002 -1.00885006e-002 -3.88853289e-002
      -9.72199142e-002 9.26571898e-003 3.46137099e-002 -3.14773992e-002
      -5.08285202e-002 8.00873339e-002 -1.14706613e-001 6.38983995e-002
      -1.07281646e-002 -1.20868243e-001 -1.08697630e-001 5.50038926e-002
      1.68691259e-002 5.05329929e-002 1.01243164e-002 1.69156753e-002
      3.22243981e-002 1.59034774e-001 1.09508194e-001 1.03970505e-001
      1.57477394e-001 2.95076165e-002 5.80870882e-002 7.33244568e-002
      -1.46327332e-001 -1.07732095e-001 -6.93290532e-002
      -1.20042041e-001 -4.10445072e-002 6.30404428e-002 -4.12519313e-002
      -3.82904001e-002 2.06645448e-002 -1.08094774e-001 1.23883225e-001
      7.30456337e-002 -4.27712277e-002 -4.95167375e-002 4.73061614e-002
      -2.51652617e-002 2.69766133e-002 4.16531675e-002 -6.68681487e-002
      -6.40482455e-002 -5.57427928e-002 7.81627595e-002 6.00213697e-003
      4.19006906e-002 -1.77564025e-002 7.42449388e-002 1.37793019e-001
      -5.08787967e-002 -1.09372223e-002 8.47841427e-003 -1.97026655e-002
      -8.62114653e-002 3.70368361e-002 1.16315000e-002 4.86607030e-002
      2.08817013e-002 -1.70555469e-002 -1.25117339e-002 -1.62526332e-002
      -5.05446829e-002 -1.26394480e-001 1.81943402e-002 -4.84482050e-002
      4.12014537e-002 1.40869230e-001 6.91968889e-004 6.72103837e-002
      -6.32358566e-002 -2.67387498e-002 -5.47721870e-002 5.03382832e-002
      -1.10850800e-002 7.64066502e-002 7.54714087e-002 6.38891244e-003
      -3.16258259e-002 2.53675766e-002 -7.29084238e-002 -1.06561437e-001
      1.11437980e-002 7.43674710e-002 1.23449061e-002 -1.14504375e-001
      -1.15017101e-001 -2.92763896e-002 8.78701732e-003 9.57382694e-002
      -2.23617908e-002 1.21392319e-002 7.25995656e-003 4.75464985e-002
      1.88913252e-002 -5.74510992e-002 -8.01336113e-003 -9.03008971e-003
      2.53274869e-002 1.83061771e-002 1.56533010e-002 1.19369356e-002
      7.90587515e-002 4.88777496e-002 -2.38510836e-002 2.35415762e-003
      1.37124350e-002 -3.20592411e-002 -7.68375248e-002 7.73289651e-002
      1.09547503e-001 5.46406955e-002 -1.63705591e-002 -2.95306630e-002
      -2.38316059e-002 -7.73711782e-003 1.41735673e-002 -8.40688646e-002
      1.31999284e-001 5.55688217e-002 -5.42313904e-002 -1.15617409e-001
      -1.50979921e-001 6.80223182e-002 7.07005709e-002 1.69129997e-001
      2.46736165e-002 -7.52159730e-002 -1.59983747e-002 -5.45609556e-002
      -4.35897820e-002 -1.54564619e-001 4.98499088e-002 1.58498853e-001
      7.03623146e-002 2.72644144e-002 4.29443941e-002 4.52085324e-002
      7.52099371e-003 -3.57598998e-002 -2.79380623e-002 2.99404711e-002
      1.02044508e-001 8.66719857e-002 -1.00180199e-002 1.17680855e-001
      6.97482973e-002 -6.02319799e-002 -5.15626632e-002 -1.40082926e-001
      -1.78162698e-002 5.68512939e-002 -5.63286729e-002 2.94866748e-002
      -2.56213788e-002 -6.90356940e-002 -3.81177515e-002
      -1.11740287e-002 -1.04444444e-001 1.01845361e-001 1.34787023e-001
      4.66657318e-002 6.53546350e-003 5.24451248e-002 1.12377822e-001
      -7.37900287e-002 -1.35202368e-003 -1.13303266e-001
      -6.39059246e-002 6.28192499e-002 -6.98757395e-002 -6.80649579e-002
      -4.87823077e-002 -1.28540009e-001 -3.90917771e-002
      -9.61436629e-002 -1.30156726e-001 -1.12809114e-001 2.70374417e-002
      -4.57722768e-002 2.27544960e-002 4.20407914e-002 -4.98295315e-002
      -2.31200755e-002 -4.24113646e-002 -9.80504751e-002
      -1.99381094e-002 -4.36131246e-002 -9.09679383e-002
      -1.50257826e-001 -6.92564324e-002 -4.31858888e-003
      -1.23136252e-001 -4.84924465e-002 -1.00957900e-001
      -3.26317288e-002 4.26181480e-002 3.49951461e-002 -6.37756893e-003
      -2.65308078e-002 -1.04468271e-001 -1.78737521e-001
      -5.64532205e-002 -9.09543186e-002 -7.67601561e-003 8.24175999e-002
      -1.20184936e-001 -1.51819199e-001 -1.08821154e-001
      -1.49646670e-001 -3.79442535e-002 5.66520616e-002 -3.41692977e-002
      8.44613016e-002 -6.15265220e-003 5.65289333e-002 3.20712067e-002
      -2.34952499e-003 -2.26163864e-003 -5.10122813e-002
      -3.10646240e-002 -4.51171119e-003 -1.51059642e-001
      -1.36609435e-001 4.56402488e-002 -3.68859246e-002 -1.63073063e-001
      -1.39724761e-001 -2.05250412e-001 6.28670901e-002 -7.58836642e-002
      3.76410484e-002 1.02243610e-001 -8.67616832e-002 -1.66753829e-001
      -1.75200209e-001 -1.48880064e-001 -9.63290706e-002 3.39469574e-002
      -8.37531697e-004 3.19727212e-002 -5.44523001e-002 -1.36938915e-001
      -7.73432627e-002 1.22998713e-003 -1.38501972e-001 -3.61606590e-002
      1.97232775e-002 3.30474339e-002 -7.24319443e-002 -1.80792864e-002
      8.79980773e-002 -1.02607436e-001 -1.72421798e-001 -1.10792525e-001
      -8.15131515e-002 -7.81575311e-003 -5.08292019e-002
      -4.47987430e-002 -1.34847453e-002 -5.61365075e-002
      -1.46257922e-001 1.79813933e-002 -1.26846880e-001 -6.23805299e-002
      1.15041830e-001 -2.26060096e-002 -2.64106020e-002 -1.37951374e-001
      3.21798469e-003 -7.08016232e-002 1.01338521e-001 -1.09330058e-001
      -1.43587649e-001 -4.11903039e-002 1.21831529e-001 2.83395592e-002
      -2.50528514e-001 -5.68670966e-003 -1.57293454e-001 5.33665009e-002
      -8.44748095e-002 -3.91313732e-002 1.51604731e-002 -6.99488632e-003
      7.26728812e-002 -3.18448395e-002 -4.62346487e-002 -7.32043535e-002
      2.07185298e-002 -3.23569775e-002 -5.10181598e-002 5.50717115e-002
      5.11628855e-003 -4.05408889e-002 -1.67047709e-001 1.11026298e-002
      -4.24320586e-002 -7.16105700e-002 -2.14088578e-002
      -6.13601692e-002 -2.44093388e-002 1.05947107e-001 2.29704008e-002
      -3.49078439e-002 -3.36065143e-003 -1.21687852e-001 7.28992075e-002
      9.81603265e-002 -9.95542016e-003 7.38686183e-003 -2.32881606e-002
      2.53570341e-002 -1.05905078e-001 1.22518372e-002 8.27384181e-003
      7.00970292e-002 3.27135958e-002 -8.53960365e-002 -5.05490303e-002
      -3.80665548e-002 8.50747600e-002 8.16126466e-002 9.35790781e-003
      -4.93849069e-002 -6.32813713e-003 -6.31767064e-002
      -2.68279053e-002 -1.07328035e-002 2.26449706e-002 6.92812353e-002
      1.97504964e-002 -5.47074899e-002 -7.18626007e-002 -2.59056874e-002
      -8.33269432e-002 -9.30557549e-002 -2.36372966e-002
      -7.92995766e-002 2.84496304e-002 -8.16838932e-004 5.49398968e-003
      -5.87454513e-002 -3.37855630e-002 -2.93572713e-002
      -4.75857519e-002 -2.48949558e-001 -2.14036524e-001
      -6.07835315e-002 -1.08523183e-001 1.80131178e-002 -2.84918606e-001
      -1.37652114e-001 -6.22935221e-002 -4.88743559e-002
      -6.40862286e-002 7.54887844e-003 1.23245530e-002 7.71117136e-002
      7.81329349e-002 -3.50343809e-002 -1.47180399e-002 4.24711518e-002
      -7.14990422e-002 -1.37826309e-001 -7.85139427e-002
      -1.79656167e-002 -6.64532408e-002 1.16601601e-001 -4.58143838e-002
      -7.86832497e-002 1.81835853e-002 1.46720648e-001 -5.67467958e-002
      1.22566007e-001 6.23826832e-002 1.84482679e-001 -7.12521076e-002
      -7.61247203e-002 1.26768127e-002 1.67405665e-001 2.28888690e-002
      -1.04456616e-003 5.49453357e-003 1.52341202e-001 3.98179740e-002
      2.46863309e-002 8.83327872e-002 4.06523049e-002 1.34616509e-001
      2.15754181e-001 -6.58286139e-002 5.66729978e-002 7.50535652e-002
      1.68371648e-001 4.47520502e-002 -1.03392169e-001 -8.01302120e-002
      8.62954184e-002 1.06698275e-001 -2.76976544e-002 3.59458439e-002
      9.23516229e-002 9.79974046e-002 4.67062704e-002 -7.56200179e-002
      2.48072613e-002 1.45956025e-001 5.79064200e-003 -2.85318848e-002
      -1.00193739e-001 3.70607385e-003 -3.79155502e-002 -1.46152647e-002
      -6.39718994e-002 -1.49799008e-002 5.84576949e-002 1.49570912e-001
      -1.28287628e-001 3.62985171e-002 -1.21120162e-001 6.32235035e-002
      2.67577395e-002 6.95874915e-002 -1.78750530e-002 1.00070722e-001
      6.05608709e-002 -4.28849868e-002 5.81632182e-002 8.86017010e-002
      5.75219467e-002 -5.81737496e-002 -1.06261872e-001 3.27872224e-002
      7.92738348e-002 1.23077422e-001 6.59144148e-002 2.77678911e-002
      9.85258352e-003 3.94126847e-002 -8.10949802e-002 2.34390907e-002
      5.17541766e-002 3.04318815e-002 -7.42275789e-002 -1.38541862e-001
      8.55030343e-002 -2.19618902e-002 1.11396670e-001 6.63170731e-003
      -7.62374327e-002 -1.15721188e-001 1.83300965e-003 -6.92664608e-002
      2.41260440e-003 1.61878988e-001 2.94072125e-002 4.93952595e-002
      -8.30449089e-002 -6.78413138e-002 2.43270975e-002 -3.62604968e-002
      3.80928367e-002 9.46154222e-002 6.75222576e-002 2.23545298e-001
      1.23141982e-001 -5.45621924e-002 -8.95732194e-002 -1.18925586e-001
      -2.36247797e-002 -3.54706086e-002 -7.60064572e-002
      -3.09777749e-003 -7.73957521e-002 -6.31108135e-002
      -7.59113431e-002 -1.11811057e-001 2.62677595e-002 -1.05642349e-001
      -1.45875104e-003 5.52914850e-002 1.30402088e-001 5.42121828e-002
      6.27999306e-002 5.33138141e-002 4.00591679e-002 7.56601766e-002
      5.11835190e-003 5.39687984e-002 -3.14705595e-002 -2.77125798e-002
      2.75350790e-002 -4.62965034e-002 9.20930225e-003 1.63604170e-001
      4.67232354e-002 -3.92979980e-002 -4.60713953e-002 -2.91748233e-002
      -1.64630834e-003 -2.49950867e-003 -4.08751257e-002
      -5.54751493e-002 -1.31314293e-001 7.11331517e-002 -1.57704845e-001
      -7.85210282e-002 -6.08668625e-002 -1.49289295e-001
      -1.01938546e-001 1.21320393e-002 -1.32757246e-001 7.21322969e-002
      5.77781014e-002 -2.87014637e-002 8.79631937e-002 8.49020928e-002
      -3.89482230e-002 -3.37965530e-003 -6.94280192e-002
      -6.83771968e-002 5.92961460e-002 5.22642434e-002 5.92276156e-002
      -4.13996913e-002 1.20904580e-001 -3.62418368e-002 5.84194362e-002
      -1.76966935e-002 -9.14059207e-002 -4.48297448e-002 4.30926010e-002
      3.61915189e-003 3.24110724e-002 1.04710624e-001 -7.85984322e-002
      -4.41167317e-002 -1.00245841e-001 -9.87395793e-002 4.25004102e-002
      1.02296464e-001 -5.70745170e-002 -1.25306128e-002 8.53362605e-002
      1.03885289e-002 -1.71873838e-001 -1.38208702e-001 1.89650636e-002
      2.32407060e-002 4.91979904e-002 -6.46239519e-002 -7.95758888e-003
      9.60684642e-002 2.77791824e-002 1.37713298e-001 -7.22996145e-003
      4.26677801e-002 5.55780306e-002 6.00598790e-002 5.81601262e-002
      4.03402857e-002 1.40308049e-002 1.50672980e-002 6.23330213e-002
      -3.93812731e-002 6.39144182e-002 2.48732492e-002 5.52342646e-002
      -1.53843328e-001 3.33189517e-002 1.65866852e-001 -2.03851610e-002
      -1.05358891e-001 -6.21925741e-002 1.14483222e-001 1.06187932e-001
      1.27835035e-001 3.24205961e-003 2.59181280e-002 5.50431125e-002
      -2.61472259e-002 9.12047550e-003 -4.04910296e-002 -3.52205038e-002
      -4.50191833e-002 5.68844602e-002 -1.06130600e-001 -7.65804434e-003
      1.43440619e-001 -3.71235348e-002 1.55979961e-001 5.91393700e-003
      2.91996635e-002 1.75065231e-002 5.13335876e-002 -6.19972646e-002
      -5.05345082e-003 1.14477731e-001 2.61721611e-002 -2.08639037e-002
      5.01784198e-002 1.10628933e-001 -7.59662986e-002 8.57498050e-002
      -1.94982793e-002 1.44352820e-002 1.30686611e-002 1.95674989e-002
      5.74539900e-002 -1.77863091e-002 -8.77770782e-003 3.80339846e-002
      1.46244571e-001 -7.73940608e-002 2.98896842e-002 -1.86233260e-002
      -4.96359207e-002 3.26889828e-002 8.22155923e-003 7.22510135e-003
      -1.26588494e-001 1.11199833e-001 -1.53464362e-001 2.62700394e-003
      7.54705817e-002 -3.95821873e-003 1.76439118e-002 3.21389847e-002
      9.82817188e-002 -4.86302301e-002 1.50157347e-001 -4.66204202e-003
      -8.76465142e-002 -3.42112184e-002 -7.03014955e-002
      -5.23734046e-003 1.11596705e-003 9.70911048e-003 -4.26401291e-003
      2.04557568e-001 -4.55502607e-002 9.40052420e-002 3.38875353e-002
      -5.42710945e-002 7.39211440e-002 -5.20371012e-002 6.47753179e-002
      -1.48011893e-001 4.33375984e-002 -2.44682997e-001 -9.59303454e-002
      -9.45415050e-002 1.13207381e-002 -8.76996964e-002 -6.46473616e-002
      2.83394800e-003 -1.40640259e-001 7.39721656e-002 -3.45528498e-002
      -1.59806505e-001 -3.96145955e-002 -1.04731442e-002
      -9.51318722e-003 -1.00386843e-001 -3.32933739e-002 2.07397863e-002
      2.33145788e-001 3.20272110e-002 -1.20670535e-001 -1.42758368e-002
      -5.27933687e-002 8.94336849e-002 -3.22080031e-002 -1.31419465e-001
      3.54895853e-002 1.74551886e-002 -9.07161981e-002 1.69508476e-002
      -8.56904685e-002 7.44411349e-002 2.02050675e-002 -6.48267046e-002
      2.77837496e-002 -1.82973519e-002 1.45373270e-001 3.61627080e-002
      -1.00957885e-001 5.92448413e-002 -9.05508548e-002 1.66269451e-001
      7.78277218e-002 1.55748185e-002 -3.39751062e-003 8.85528177e-002
      -4.80833091e-002 3.59598286e-002 3.12220715e-002 -9.17299762e-002
      -5.74778300e-003 -6.92895874e-002 -1.28057361e-001
      -1.47086838e-002 5.44484928e-002 -1.70552749e-002 1.77588053e-002
      4.78578955e-002 -3.26173902e-002 -1.91745441e-002 1.11762574e-002
      -9.96991321e-002 -1.49254156e-002 7.14663938e-002 2.55346391e-002
      -7.05825910e-002 2.58020367e-002 -1.33978471e-001 1.17399521e-001
      2.06939336e-002 -1.04453683e-001 3.35776210e-002 8.99494141e-002
      -3.63266543e-002 -8.58209748e-003 -1.68106943e-001
      -8.62206370e-002 -1.18886707e-002 5.60306665e-003 -5.65869585e-002
      -1.29020270e-002 -6.02945965e-003 -7.85437971e-002 1.33076459e-002
      7.91319758e-002 -1.15756644e-003 3.76037620e-002 -2.99334563e-002
      -7.84735456e-002 -5.55494763e-002 4.33117449e-002 2.24608406e-002
      -6.09587729e-002 -1.43842148e-002 -4.82779443e-002
      -8.87819082e-002 -9.70667079e-002 5.46655208e-002 7.35930772e-003
      -5.70644327e-002 -5.22455983e-002 -5.37541546e-002
      -4.42591980e-002 3.38181965e-002 -1.21948505e-002 2.52443347e-002
      2.22073195e-005 -3.02459579e-002 -1.22976198e-003 -1.44406497e-001
      -4.07097563e-002 4.70456555e-002 -2.50388924e-002 4.60308269e-002
      7.18996152e-002 1.50727928e-001 -3.86070809e-003 3.82965021e-002
      -6.59518391e-002 3.78745496e-002 2.10388284e-002 1.76044200e-002
      -3.22047882e-002 -2.01036528e-001 -2.93262163e-003
      -1.68227598e-001 -3.04154623e-002 2.27077380e-002 -1.30940482e-001
      -8.57693627e-002 -9.65084415e-003 -1.02370782e-002
      -9.56945494e-002 -1.40753955e-001 -2.14996576e-001 4.36755456e-002
      -7.11036101e-002 5.86423613e-002 6.44765794e-002 -2.56182179e-002
      1.32619500e-001 -1.91563554e-002 1.06742702e-001 -8.96600708e-002
      3.77190597e-002 1.34366611e-002 -4.66907509e-002 -9.69290584e-002
      -3.28489244e-002 -1.65626109e-002 -1.15819447e-001
      -5.18556051e-002 -1.21145956e-001 -6.09963723e-002
      -4.02597487e-002 -9.11777690e-002 1.41915288e-002 1.09435491e-001
      2.41061579e-002 -5.30274175e-002 -7.51885250e-002 -1.16912104e-001
      2.90247388e-002 -3.40062641e-002 -2.15483941e-002 5.55294789e-002
      -1.77332629e-002 8.79374444e-002 -5.76950572e-002 -2.99954303e-002
      -1.04125395e-001 -1.96650308e-002 -4.01785001e-002 2.53968239e-002
      -5.29577583e-002 8.31210986e-002 2.53788475e-002 -1.89520061e-001
      -2.64878292e-002 -8.88084620e-002 -2.56334003e-002 1.07357558e-002
      -8.57904740e-003 8.81776363e-002 1.41595304e-002 8.01713765e-002
      -2.90193528e-001 -7.00038001e-002 -6.70247301e-002
      -2.36462448e-002 -8.97417217e-002 2.28153784e-002 3.06220222e-002
      4.46908325e-002 1.23802669e-001 2.74051130e-002 -4.47325222e-002
      -1.13129124e-001 7.65932053e-002 -4.47205827e-003 -3.14857289e-002
      3.21420133e-002 2.87790895e-002 -3.19856443e-002 1.63000096e-002
      -7.97900707e-002 -5.85916266e-002 4.36900370e-002 6.48389664e-003
      5.34409359e-002 -2.02626176e-003 -5.83175607e-002 -1.42123625e-002
      3.20275873e-003 -1.52270310e-002 -6.24953136e-002 1.21363297e-001
      4.34365161e-002 4.44953479e-002 -6.88343425e-004 3.42419595e-002
      -6.60698339e-002 -1.94636278e-003 -1.13000432e-002 8.71034898e-003
      1.43332332e-001 1.26468778e-001 -5.25767915e-002 -4.18485142e-002
      -2.37925351e-002 -1.34827137e-001 -1.22533411e-001
      -4.42183279e-002 -8.31370428e-002 -6.62175044e-002 1.04769729e-002
      -1.04854085e-001 -1.63694218e-001 -1.37956306e-001
      -1.00379795e-001 -7.47902021e-002 1.25093639e-001 -5.32118455e-002
      -1.12514138e-001 8.10646713e-002 -2.61180382e-002 -1.08616836e-001
      3.80538143e-002 -8.80139396e-002 -7.02594221e-002 7.26246312e-002
      -1.73215941e-002 -7.39326561e-003 1.36425301e-001 -2.42858641e-002
      -1.16514340e-001 1.09433353e-001 1.39920175e-001 1.53554201e-001
      2.72072136e-001 -2.72538476e-002 -2.44836092e-001 7.59464204e-002
      1.18284330e-001 -1.37053385e-001 1.07877359e-001 1.45417824e-001
      2.01999933e-001 -9.63272676e-002 -1.34134397e-001 -1.69845283e-001
      8.32570791e-002 6.72512427e-002 -6.17681071e-002 6.90936297e-002
      1.11802854e-001 7.07498267e-002 -1.01410292e-001 -4.65697199e-002
      -2.46041603e-002 1.01519443e-001 1.43366620e-001 6.65374380e-003
      2.06482336e-001 1.46916315e-001 6.34173900e-002 4.38445881e-002
      -1.49039373e-001 -6.33412376e-002 1.21847056e-001 1.21985950e-001
      -2.26372797e-002 9.56886560e-002 4.96468432e-002 4.48532365e-002
      1.85340699e-002 -9.29104281e-004 5.91518022e-002 7.74394944e-002
      -3.49845551e-002 -1.15127370e-001 -5.21420734e-004 7.44466931e-002
      6.57127723e-002 -1.18350662e-001 -9.09374356e-002 -3.55211720e-002
      7.23485947e-002 7.63162039e-003 2.44982596e-002 -2.17082025e-003
      8.52953419e-002 1.08205052e-002 -6.35084347e-004 1.49798170e-002
      4.25901935e-002 5.33234999e-002 8.15319940e-002 -8.99951458e-002
      -3.21678445e-002 -1.26750544e-002 -6.47065565e-002 3.78469788e-002
      -4.25071158e-002 8.42083097e-002 1.05665535e-001 3.32504027e-002
      -2.18002945e-001 -2.64262315e-003 6.40344769e-002 3.59053239e-002
      -9.64092277e-003 9.79696289e-002 2.30213790e-003 1.69973180e-001
      -1.33212984e-001 6.08432963e-002 9.32413340e-002 1.94616660e-001
      2.51818951e-002 -1.32835750e-002 -6.00267239e-002 -1.68042958e-001
      -1.53246924e-001 -2.31362376e-002 -6.85284585e-002
      -1.01855263e-001 -2.54393905e-001 -2.17239469e-001
      -1.59702465e-001 -1.93815142e-001 -1.03926435e-001
      -1.16181478e-001 -1.22730240e-001 -1.25493690e-001 1.26086235e-001
      1.59870178e-001 1.04843765e-001 7.03533590e-002 3.72777246e-002
      -1.50889695e-001 -7.10201859e-002 1.47056818e-001 2.87542105e-001
      1.02722049e-001 7.83426911e-002 -9.84781086e-002 -1.92182586e-002
      -3.75906527e-002 -7.75029836e-003 1.16123669e-001 -5.58819547e-002
      3.78381573e-002 3.29494998e-002 -7.18189124e-003 2.38776356e-002
      5.00841485e-003 -1.37567654e-001 -1.13037869e-001 -1.74631849e-001
      -6.18772320e-002 1.02569163e-002 -1.10770181e-001 -8.02347660e-002
      -4.06544730e-002 -1.10840492e-001 -8.14950094e-002
      -1.02321982e-001 -9.63115543e-002 6.33262023e-002 1.88570827e-001
      4.46973406e-002 3.56110185e-002 5.10863699e-002 -3.93523555e-003
      4.08247374e-002 1.40409246e-001 4.28116620e-002 -3.73129882e-002
      1.13387741e-001 8.27958807e-002 1.07608691e-001 -3.90493013e-002
      1.04833646e-002 7.09598660e-002 1.54315412e-001 8.03979561e-002
      4.17279191e-002 1.90753907e-001 1.36531852e-002 3.60025391e-002
      7.18693994e-003 -1.17929727e-002 -7.63115659e-002 -9.26193073e-002
      -1.32792294e-001 5.15927449e-002 1.53880030e-001 -3.19016241e-002
      -3.03258356e-002 -2.19380092e-002 3.70016391e-003 -4.29526046e-002
      5.69056980e-002 -6.56335279e-002 -2.78393761e-003 2.82543331e-001
      2.82356590e-001 2.10120037e-001 -2.02946123e-002 -1.69264264e-002
      1.11030126e-002 9.51104015e-002 -2.62557399e-002 1.00130895e-002
      1.66385412e-001 7.39959301e-003 -4.83456552e-002 -1.35010704e-001
      -7.81397074e-002 -1.10108808e-001 -1.32282125e-002
      -2.58843273e-001 6.94483593e-002 6.66844770e-002 -1.14298560e-001
      -1.18530639e-001 -5.37047684e-002 8.91945809e-002 -3.65088359e-002
      1.17023431e-001 2.48550232e-002 2.94579472e-002 3.82628627e-002
      -2.67988015e-002 -9.76542383e-003 5.83199710e-002 6.71341196e-002
      -9.78532657e-002 3.33354473e-002 -5.22151738e-002 1.24761000e-001
      8.25260431e-002 -1.00763537e-001 -7.91610256e-002 -1.55471504e-001
      -5.91501705e-002 -2.73286365e-003 6.90577403e-002 -6.53998777e-002
      -3.50418896e-003 -2.12603044e-002 -6.74209595e-002
      -8.80787894e-002 -1.74967021e-001 -1.99524057e-003
      -6.78358302e-002 -1.97501387e-002 -1.68147273e-002 7.02865496e-002
      9.46033299e-002 3.48240212e-002 1.01519180e-002 4.67037559e-002
      6.29200563e-002 -2.23455969e-002 6.71929047e-002 3.76434065e-002
      5.42111434e-002 -1.08176339e-002 -2.68911067e-002 -6.20019622e-002
      4.54983748e-002 2.68763732e-002 -1.51780933e-001 1.42105501e-002
      -1.04671657e-001 2.98789237e-002 1.63717717e-002 -4.81209047e-002
      -7.04174563e-002 -1.23185031e-001 5.09235673e-002 4.94457260e-002
      3.59705626e-003 3.68215926e-002 -1.10336602e-001 -1.15081947e-002
      -1.24678224e-001 -6.80082664e-002 5.99011034e-002 9.66323093e-002
      -8.13958570e-002 -6.36467896e-003 3.20745744e-002 1.54398575e-001
      9.44340155e-002 -6.57517761e-002 -8.33596662e-002 -8.54368787e-003
      1.36625901e-001 -1.41753510e-001 -8.09335988e-003 -4.65275943e-002
      8.92851278e-002 5.56498580e-002 -5.57625704e-002 -2.10860178e-001
      -1.66174062e-002 2.86901016e-002 -8.00272226e-002 5.65987341e-002
      -1.37871075e-002 5.50732315e-002 5.12727425e-002 4.01980104e-003
      -1.29976459e-002 3.44103836e-002 1.04950666e-001 -5.40885888e-002
      1.12522990e-002 8.95675495e-002 -2.58590393e-002 -6.97631063e-003
      -6.82964027e-002 -1.77150995e-001 -2.28642989e-002 3.71522568e-002
      -8.00195709e-002 -4.41256678e-003 7.72144645e-002 4.74707745e-002
      1.09325107e-002 4.29935493e-002 -3.73972431e-002 2.54579876e-002
      1.17498808e-001 -8.81058164e-003 1.32606730e-001 1.52111515e-001
      4.19777073e-002 2.19336823e-002 -1.02874003e-001 9.34533030e-002
      -1.20996229e-001 1.00754455e-001 -7.02076266e-003 3.13725024e-002
      7.69208148e-002 2.32921764e-002 2.45487853e-003 -9.47557911e-002
      -1.49852574e-001 -5.33309765e-002 1.38463527e-001 9.80118662e-003
      8.18529651e-002 1.30279884e-001 1.58922702e-001 9.66970399e-002
      -5.32204099e-002 -1.50656164e-001 -2.02184796e-001 4.88377512e-002
      -8.10617134e-002 2.17330903e-002 1.72426160e-002 -4.76917773e-002
      5.64379370e-005 -9.24994051e-002 1.29667431e-001 -7.33010918e-002
      -3.16898189e-002 -3.54957730e-002 3.90127376e-002 -4.06351015e-002
      1.01519153e-002 -3.15331295e-002 -1.12952767e-002 2.69674938e-002
      2.43756808e-002 -3.76899727e-002 -6.32005557e-002 -2.99370196e-003
      -7.19641298e-002 1.48080483e-001 1.23372622e-001 -2.47559585e-002
      -1.32574335e-001 -2.27602899e-001 -2.22106446e-002
      -1.20231360e-001 2.71484144e-002 -3.35386172e-002 1.34034514e-001
      1.66686162e-001 4.88563478e-002 3.31621915e-002 -1.01491138e-001
      -1.90061107e-002 3.10345683e-002 5.97013906e-002 3.54552604e-002
      -8.87492448e-002 7.90368114e-003 -1.88052431e-002 -3.46226059e-002
      -6.42042011e-002 -5.75075299e-002 -1.04461826e-001
      -1.07933626e-001 -1.20101258e-001 5.87203018e-002 1.23331293e-001
      -3.25659923e-002 -7.63212442e-002 -7.77609721e-002 1.29049018e-001
      -2.93777976e-002 -9.46320221e-002 2.47742683e-002 5.43111041e-002
      6.27153143e-002 -3.33514549e-002 1.85376070e-002 -8.72063190e-002
      -1.01707212e-003 1.65656526e-002 5.78885153e-002 -1.27652138e-002
      1.38456076e-001 2.39380449e-001 1.26322340e-002 4.49850336e-002
      -2.61986498e-002 -1.32439742e-002 -8.55702981e-002 1.86568014e-002
      2.48779412e-002 5.78484349e-002 1.67324290e-001 4.63952757e-002
      2.27905679e-002 -1.23229578e-001 1.63575858e-002 -6.22738525e-002
      -3.18539180e-002 6.90776631e-002 -8.70386735e-002 -8.87756646e-002
      -2.83205155e-002 -2.65256464e-002 -2.19708368e-001
      -3.51815224e-002 -3.59730273e-002 -1.39236925e-002
      -1.99038029e-001 1.53214306e-001 2.11629167e-001 5.86301126e-002
      7.06833899e-002 8.03486182e-005 -6.32050559e-002 -5.85004650e-002
      1.22129850e-001 1.34928331e-001 -2.63589574e-003 -1.74235075e-003
      9.85329524e-002 8.15501958e-002 5.87961031e-003 1.34764332e-002
      3.24447677e-002 8.79176483e-002 7.52160512e-003 4.08943407e-002
      1.29280193e-002 9.28456709e-002 -2.50069443e-002 -2.38992959e-001
      -1.21035129e-002 3.16796713e-002 4.86375988e-002 -5.01198210e-002
      1.06938360e-002 8.12936500e-002 -3.26518305e-002 2.45607924e-002
      -1.39771059e-001 -2.02835668e-002 -6.24111071e-002 1.78804006e-002
      -1.61235943e-001 -1.20073687e-002 8.47410709e-002 9.09568146e-002
      1.32353038e-001 3.56861502e-002 2.07910210e-001 1.54184744e-001
      6.68669343e-002 2.54118233e-003 -1.52909368e-001 -5.63792177e-002
      -1.17165811e-001 -3.67913432e-002 -6.00187890e-002 1.38491288e-001
      -1.01462193e-001 -6.61798045e-002 -1.23896547e-001
      -1.71928313e-002 -6.85629249e-002 -1.38021663e-001
      -1.04755126e-001 -5.93333505e-002 -3.08480184e-003
      -9.58083645e-002 8.43941942e-002 -8.52939039e-002 -2.63698138e-002
      -1.28327906e-002 -1.51108392e-002 -2.84919236e-002 8.17033052e-002
      7.80536532e-002 6.38868138e-002 7.23399669e-002 1.22969002e-002
      -5.61916009e-002 -8.99520516e-002 -7.16788918e-002
      -8.02297145e-003 1.30367260e-002 9.62638110e-002 2.50616111e-002
      7.80819207e-002 4.54623885e-002 3.34592313e-002 4.85444181e-002
      1.52569368e-001 -1.16859898e-002 1.09150767e-001 2.67873667e-002
      1.04028191e-002 -1.46522969e-002 1.57480285e-001 -8.66604894e-002
      -8.04238543e-002 3.99471894e-002 -1.41780317e-001 -9.52317938e-002
      1.00525148e-001 4.33243737e-002 2.49858331e-002 -4.65406440e-002
      -6.24965131e-002 -4.53551114e-002 3.17116827e-002 5.82020879e-002
      6.10972829e-002 1.94201469e-001 8.39995742e-002 -1.93775326e-001
      -7.03843087e-002 7.91584607e-003 -1.35957137e-001 -9.43362433e-003
      -6.71165809e-002 -5.56980632e-002 -3.54934186e-002 1.13984302e-001
      -7.77882636e-002 6.11366816e-002 -8.14683735e-002 -2.10999489e-001
      -1.59027383e-001 3.28536630e-002 -1.39091417e-001 6.22786768e-002
      -2.52953582e-002 -6.78115115e-002 -3.18190008e-002
      -3.40409987e-002 -1.02521904e-001 4.41566072e-002 1.62835270e-001
      9.95277539e-002 6.90792352e-002 -1.96535543e-001 -1.77511960e-001
      -3.49240266e-002 3.70474309e-002 -5.02234176e-002 -5.31370239e-003
      -9.43078697e-002 1.87998608e-004 -3.77843855e-003 -5.76440245e-002
      -1.49233416e-002 -1.32731162e-003 -4.87717912e-002
      -7.51027986e-002 -2.06610281e-002 5.96987270e-002 1.26378849e-001
      1.58389598e-001 -2.38427352e-002 -1.27423748e-001 -1.82548370e-002
      -4.13301997e-002 -1.03394650e-001 -7.45453537e-002
      -2.95525976e-002 3.88795435e-002 2.99214981e-002 -5.07162437e-002
      -4.63241413e-002 -7.22587854e-002 8.67623165e-002 2.00678036e-003
      -4.89974245e-002 -9.00333282e-003 -1.16713673e-001 1.93495490e-002
      -5.25623895e-002 6.66957125e-002 3.66647542e-002 8.51408839e-002
      -1.72411919e-001 -1.47628430e-002 1.02162167e-001 3.10306884e-002
      -1.14618026e-001 -1.02620088e-001 -4.78456579e-002 1.80143356e-001
      -3.73995339e-004 4.11998667e-002 7.71743944e-003 1.38016731e-001
      -9.37970355e-002 6.66871220e-002 -6.40996248e-002 5.49361855e-002
      3.81336249e-002 -1.13194808e-002 -5.65252192e-002 -8.18991438e-002
      5.31118177e-002 -3.06716524e-002 6.06431365e-002 1.31839842e-001
      1.98482419e-003 9.68288332e-002 -1.51528463e-001 -1.34823516e-001
      1.22036524e-001 1.94213942e-001 1.38792753e-001 6.11658953e-002
      -6.07347414e-002 -1.84010088e-001 -1.10214308e-001 4.12674062e-002
      2.00976014e-001 1.62797138e-001 1.79768652e-001 7.66192824e-002
      9.44954380e-002 1.05198704e-001 2.72179618e-002 -5.61008379e-002
      -2.09192485e-001 -1.01441458e-001 -3.17232721e-002 7.43408278e-002
      -7.79589638e-003 1.64452285e-001 2.16023505e-001 -1.93889495e-002
      -9.37871858e-002 2.77638435e-002 3.99543345e-002 8.41747001e-002
      -9.85851791e-003 3.97378430e-002 1.61011443e-001 1.70692921e-001
      3.29278439e-001 6.81168959e-002 -7.87123758e-003 1.14227295e-001
      1.62587181e-001 1.06007099e-001 1.19413026e-001 1.63337275e-001
      2.06069350e-001 2.16392472e-001 -1.80927515e-002 -1.28648728e-001
      5.59660047e-002 4.11437526e-002 -5.48353344e-002 -6.74914196e-002
      -9.84594896e-002 6.27789795e-002 7.20416605e-002 -3.62583175e-002
      -6.02175072e-002 1.96810007e-001 2.04991996e-001 1.65979207e-001
      8.87066945e-002 1.10482723e-001 9.40229297e-002 1.66092172e-001
      3.04268906e-003 -4.65996973e-002 5.15059531e-002 -9.34379734e-003
      -1.21522121e-001 -4.66718478e-003 4.34845760e-002 6.90928027e-002
      1.15868092e-001 -1.04446873e-001 -1.40956312e-001 2.53449708e-001
      3.54438871e-001 2.53241688e-001 1.01065859e-001 7.94027969e-002
      9.78150964e-002 1.30797163e-001 -6.79738000e-002 -2.28791133e-001
      2.85962615e-002 2.14798469e-002 1.46391690e-002 -4.42957021e-002
      -4.70004976e-003 -7.31148496e-002 -8.50030333e-002
      -3.43028545e-001 -4.27665226e-002 1.35018528e-001 1.41035378e-001
      2.23335414e-003 -2.32369322e-002 1.91230431e-001 2.89013803e-001
      3.10325563e-001 -5.23072593e-002 -3.28054518e-001 1.54390687e-003
      -1.52227566e-001 -7.96092600e-002 -6.27341866e-002
      -1.62304863e-002 1.07878176e-002 7.24621490e-002 -1.93834513e-001
      -2.31116787e-002 8.15764591e-002 6.68102950e-002 5.51991202e-002
      -9.81107876e-002 6.82595745e-002 8.77200218e-004 5.62978685e-002
      -8.54090378e-002 -5.72872907e-002 -2.86700651e-002
      -2.92747691e-002 -7.85974786e-002 -1.89867869e-001 3.61818410e-002
      -2.03044534e-001 -6.89430684e-002 -3.87857929e-002
      -4.78413962e-002 1.08007990e-001 -1.61478724e-002 5.67466281e-002
      -6.68480098e-002 1.17025161e-002 8.19321442e-003 4.26099487e-002
      -9.55164526e-003 4.26801704e-002 -9.93178561e-002 -1.81023315e-001
      -8.59358162e-002 -6.32628873e-002 -6.54693022e-002
      -9.38066542e-002 -3.71513292e-002 4.41928990e-002 -9.35270339e-002
      3.21113318e-002 4.40080427e-002 1.33761680e-002 -8.02877694e-002
      1.03468843e-001 -5.66992685e-002 -5.53129911e-002 -3.00191678e-002
      -3.28519434e-001 -3.04152425e-002 -1.40046522e-001 4.73742709e-002
      1.61351219e-001 6.49301112e-002 -5.73568493e-002 -3.59352939e-002
      -9.22921970e-002 4.38875817e-002 1.60939544e-002 -7.96829909e-002
      -2.20981007e-003 -6.83937967e-003 2.54947487e-002 -5.56416810e-002
      -8.09654593e-003 -2.46825395e-003 -8.39341357e-002
      -1.95204318e-002 -1.01559266e-001 2.29242697e-001 6.67103082e-002
      4.85082492e-002 -1.28898080e-002 -1.28397252e-002 -1.23167157e-001
      -2.34446481e-001 1.92416366e-002 -8.30274448e-002 6.62221536e-002
      1.27989992e-001 1.42818242e-001 -6.02592109e-003 -2.27547847e-002
      -3.92985009e-002 -1.81583852e-001 -1.06575899e-001
      -7.28238299e-002 -7.26800486e-002 4.53914069e-002 5.00346124e-002
      -1.05223529e-001 -1.06448159e-002 -1.53431356e-001
      -8.87284800e-002 -1.22198928e-002 -6.03721365e-002 2.15923145e-001
      1.06276497e-001 1.17522225e-001 1.09419100e-001 9.47553478e-003
      -8.59197080e-002 -1.11231416e-001 7.13538891e-003 9.45223719e-002
      1.27023056e-001 9.06549767e-002 -1.51210197e-003 8.49228166e-003
      3.66964936e-002 -1.56984448e-001 -8.85438398e-002 -8.27912763e-002
      -7.02491626e-002 -5.92770055e-002 1.47604086e-002 2.26664245e-001
      -4.12377790e-002 1.16132572e-002 6.80269003e-002 9.49887652e-003
      4.24952097e-002 6.62085554e-003 -4.13382724e-002 -1.58962488e-001
      7.20679713e-003 -1.08174235e-001 7.79331699e-002 5.32143237e-003
      4.44389768e-002 -2.83774883e-002 1.93261392e-002 1.46295339e-001
      3.65450904e-002 -6.36491999e-002 -3.28973345e-002 -2.30578315e-002
      -8.68343189e-002 1.25650410e-002 6.34202734e-002 -1.87484436e-002
      -9.43135284e-003 -4.36184369e-002 1.59620736e-002 -1.85395088e-002
      2.88376454e-002 1.48450568e-001 2.04417519e-002 1.13998897e-001
      -6.07098546e-003 -1.57915816e-001 -1.20620750e-001
      -1.05798841e-001 -1.60794541e-001 5.50878327e-003 6.26498535e-002
      5.84077202e-002 1.41541570e-001 4.54456173e-003 1.48775261e-002
      -1.26090929e-001 -6.35358915e-002 4.43731844e-002 5.63716181e-002
      1.17991373e-001 7.61192515e-002 -6.02737889e-002 -1.82445541e-001
      -1.05008371e-001 -5.73511906e-002 -7.02466667e-002 6.25471445e-003
      1.20118476e-001 1.34918377e-001 2.00972985e-002 8.52439776e-002
      -4.42494340e-002 -1.38875972e-002 -1.97680995e-001
      -3.23210135e-002 -3.38453129e-002 1.73899993e-001 -2.15785448e-002
      -1.48555022e-002 -1.35247670e-002 -1.02677874e-001
      -4.41290662e-002 -1.98160112e-001 -1.49531871e-001
      -3.89760211e-002 -2.74186414e-002 4.81239753e-003 9.81158987e-002
      1.43369585e-001 -2.03713551e-002 8.63287449e-002 -1.12097599e-001
      -8.18780437e-002 -6.80076182e-002 3.53563167e-002 7.41689578e-002
      -4.42810282e-002 -2.80461125e-002 -2.77129084e-001
      -5.59084862e-002 -1.38985425e-001 -3.89557965e-002
      -5.91262542e-002 3.20391804e-002 -1.21925890e-001 3.98514047e-002
      -5.32398093e-003 -5.74136190e-002 -6.79587498e-002
      -3.32795084e-002 -6.42156750e-002 -8.61040279e-002 2.69877687e-002
      1.11018427e-001 2.42961440e-002 2.10676581e-001 1.15903229e-001
      1.59484088e-001 -3.76165360e-002 -6.47165924e-002 -1.76822450e-002
      9.91179720e-002 1.10919476e-001 -1.03960522e-002 -5.76802203e-003
      8.62265155e-002 3.95121053e-002 7.20574483e-002 -4.22520116e-002
      -7.04273283e-002 -4.85385545e-002 2.07769200e-002 1.34650454e-001
      1.33743575e-002 -7.40447119e-002 -4.07210924e-002 -1.12733021e-001
      5.43123111e-003 -1.19320638e-002 1.20269507e-001 2.03618288e-001
      7.18400329e-002 4.15710881e-002 -5.75037953e-003 -2.73590684e-002
      4.97748330e-002 -3.41304988e-002 8.51415098e-002 -4.65851917e-004
      2.44244132e-002 1.24520101e-001 1.53167367e-001 1.09551489e-001
      1.77819341e-001 1.58354387e-001 1.17089570e-001 9.64175817e-003
      2.89474148e-002 1.23230562e-001 -6.84415773e-002 -6.73546195e-002
      -1.62318721e-001 -5.74012212e-002 6.52976930e-002 1.22874856e-001
      -7.87857026e-002 -4.11032587e-002 -3.84455211e-002 8.60359594e-002
      1.16831988e-001 7.32613280e-002 1.94031507e-001 1.98779196e-001
      6.55534044e-002 1.32611275e-001 7.14171305e-002 -5.88986324e-003
      -6.91983849e-002 -1.39761055e-002 -1.23328052e-001 2.34680176e-002
      1.07408175e-002 -1.25582486e-001 -1.52047321e-001 -6.40848577e-002
      -1.97393730e-001 -4.71120067e-002 -3.97694744e-002
      -7.78926983e-002 -4.63941619e-002 -1.34642735e-001 9.09863487e-002
      -1.43527230e-002 8.75440240e-002 -5.38930558e-002 4.72623669e-002
      8.28161687e-002 1.20155334e-001 4.15212549e-002 -1.00601828e-002
      8.32760632e-002 3.45226540e-003 1.62656102e-002 9.77376550e-002
      -2.42342949e-002 2.47235168e-002 -4.89676520e-002 1.02272376e-001
      -7.27695003e-002 -1.57274187e-001 -9.84720662e-002 6.65720478e-002
      -8.74799192e-002 7.87497461e-002 2.02291995e-001 1.95603576e-002
      8.03958327e-002 -2.99030729e-003 8.44443738e-002 -8.55063833e-003
      -9.09392815e-003 2.03475133e-001 6.93993941e-002 -8.52465481e-002
      6.18876629e-002 5.24737053e-002 -3.59667614e-002 4.97103296e-002
      6.91402471e-003 -9.86296758e-002 9.04807895e-002 1.42975459e-002
      -2.50125706e-001 -1.15259640e-001 1.38552874e-001 -2.07684599e-002
      1.08182028e-001 -4.07801121e-002 -1.26989469e-001 4.48376425e-002
      6.11200482e-002 3.24095003e-002 3.39974463e-002 1.14416842e-004
      9.09248069e-002 1.17714278e-001 -1.17307618e-001 -1.15505204e-001
      1.08234420e-001 4.64738943e-002 -1.54669806e-001 7.73160979e-002
      -9.93978698e-003 2.24620495e-002 1.83120638e-001 -6.60372898e-002
      -9.66052935e-002 3.17618363e-002 -4.39988896e-002 -4.99497987e-002
      -7.46318772e-002 1.03515662e-001 -2.39806827e-002 9.13661271e-002
      1.88032258e-002 -5.21459170e-002 1.23174917e-002 6.49177134e-002
      1.32465046e-002 -1.63079165e-002 8.01483840e-002 5.38030528e-002
      9.72084776e-002 -1.43652270e-002 1.93149373e-002 -2.11917795e-002
      7.64396340e-002 -2.01622337e-001 -1.76233917e-001 -7.51355104e-003
      6.97929189e-002 1.80183575e-001 7.50139058e-002 -1.01908237e-001
      5.91423027e-002 1.20500259e-001 -7.01158447e-003 -5.28948829e-002
      -1.36745162e-003 -1.05157591e-001 1.81174621e-001 9.37315170e-003
      -7.72729516e-002 5.85429855e-002 4.46000993e-002 6.36118725e-002
      2.18385439e-002 1.81681290e-001 -1.11567453e-002 2.59524025e-002
      -1.07199647e-001 2.66635623e-002 6.53021708e-002 -5.65698147e-002
      -6.98651522e-002 -1.71279702e-002 5.98048493e-002 -2.90217102e-002
      3.24753411e-002 1.06629252e-001 -1.35062248e-001 -6.85646571e-003
      1.98655762e-002 -6.89658150e-002 -7.39776641e-002 -3.60380448e-002
      7.57812662e-003 5.72997816e-002 -1.09352216e-001 -1.59777328e-001
      -4.74003609e-003 6.25914335e-002 -1.16825424e-001 2.37902664e-002
      -3.26016976e-004 -5.72101492e-003 1.20128736e-001 7.98558891e-002
      -3.67615372e-002 1.06460281e-001 -1.23155028e-001 -1.22508146e-001
      -6.13141991e-002 2.68468596e-002 -3.71388979e-002 1.12362199e-001
      2.36328870e-001 -3.77750136e-002 -1.17184572e-001 8.64968598e-002
      -1.10711781e-002 -2.00524349e-002 -7.98173398e-002
      -1.25175253e-001 3.10540549e-003 1.39690906e-001 3.05516064e-001
      1.17259994e-001 -2.10667290e-002 -9.72032696e-002 6.04816638e-002
      1.37124443e-002 -7.89479837e-002 1.00248843e-001 9.61052179e-002
      -5.71114197e-002 2.38673892e-002 5.42452373e-002 -1.32211536e-001
      -1.47868216e-001 -1.48848966e-001 -1.38884753e-001
      -1.22047454e-001 -8.61675218e-002 -1.08040445e-001 5.08792102e-002
      3.31067331e-002 1.88631386e-001 1.38104841e-001 8.09553638e-002
      -8.33898485e-002 -3.84792313e-002 -2.16504466e-002 8.34309757e-002
      1.37562230e-002 -3.33595015e-002 1.29427776e-001 4.76285703e-002
      -9.92937461e-002 -4.10350272e-003 4.61904258e-002 3.14225033e-002
      4.38151099e-002 -2.52171569e-002 -2.23694965e-002 -5.82510829e-002
      -3.46378274e-002 -2.17968933e-002 -3.13057448e-003
      -2.29878258e-002 9.70781688e-003 -2.14906875e-002 2.26853285e-002
      -1.39082283e-001 -1.12897441e-001 -6.19445518e-002
      -2.64661815e-002 -1.57167073e-002 -2.19150726e-002
      -1.05572984e-001 -9.51120704e-002 -7.38303876e-003
      -1.06127806e-001 -2.55325269e-002 3.17517854e-002 -8.02612379e-002
      -6.84081689e-002 8.89118612e-002 2.18167812e-001 2.69846708e-001
      2.79815607e-002 -2.06434906e-001 -3.09212506e-002 -1.16990812e-001
      -4.72028740e-002 -1.82669953e-001 -4.08018231e-002
      -3.18126753e-002 1.88560918e-001 -2.61680800e-002 -1.01873897e-001
      -1.03203006e-001 -3.26100886e-002 8.29835683e-002 -2.80810818e-002
      5.41915447e-002 -4.45690602e-002 1.52343474e-002 5.33269085e-002
      -1.26415133e-001 1.07949823e-001 -7.43352845e-002 8.63920618e-003
      -5.37823811e-002 -8.85038897e-002 -6.55808821e-002 1.58012316e-001
      1.34368911e-002 -1.51765674e-001 4.79395911e-002 -5.87240271e-002
      -5.12833819e-002 -1.40923440e-001 -5.23649417e-002
      -1.04755916e-001 7.06971362e-002 1.10137880e-001 7.83253834e-002
      -1.65223368e-002 -1.48152933e-001 -1.06487170e-001
      -1.53500319e-001 -1.48954317e-001 -1.56535521e-001
      -4.22958173e-002 8.69173929e-002 -1.33743122e-001 6.55810088e-002
      -7.21399561e-002 -7.53450319e-002 5.38586974e-002 -2.50784084e-002
      -7.49729350e-002 1.70517251e-001 9.58219767e-002 -6.51166737e-002
      -2.33745817e-002 -1.41098306e-001 -8.05066973e-002 5.74533828e-002
      -3.57619673e-002 -1.98350355e-001 1.69875026e-001 1.02799378e-001
      1.24837004e-001 -5.51115721e-002 -8.08473751e-002 2.27832198e-002
      -3.93025875e-002 -1.02226555e-001 -1.40943199e-001
      -8.81259292e-002 4.67721559e-002 6.93814680e-002 -4.85838465e-002
      -1.27940685e-001 1.45076990e-001 -2.89903372e-003 -8.38833526e-002
      8.15373473e-003 1.18298326e-002 -7.24890968e-003 -3.14051309e-003
      -1.17588332e-002 -8.11608508e-002 -7.63425380e-002 3.78222428e-002
      1.53466384e-003 -1.48643106e-001 7.19336495e-002 8.76540542e-002
      1.31382197e-002 -5.66524938e-002 -8.44624937e-002 1.00124791e-001
      8.44549462e-002 5.72884679e-002 -2.51216125e-002 4.80976403e-002
      -3.54566611e-002 -2.55171638e-002 -7.05447719e-002
      -9.60553214e-002 7.96489418e-002 -5.09135909e-002 -3.52661870e-002
      7.32901916e-002 2.61967294e-002 7.36641930e-003 -7.99037442e-002
      -7.60347471e-002 -9.84083302e-003 3.83441746e-002 -7.33954385e-002
      -3.39180976e-002 -9.73527208e-002 8.98513719e-002 1.57125574e-002
      -3.62248085e-002 2.50663776e-002 -3.91759053e-002 1.30515695e-001
      -4.09807190e-002 -5.77968620e-002 1.02281898e-001 1.48356065e-001
      -4.92497981e-002 -3.81851867e-002 -4.35483903e-002 3.97379957e-002
      9.50816050e-002 7.86945820e-002 -8.68754089e-002 -8.62245113e-002
      -2.30276510e-002 3.50275636e-002 1.12553790e-001 8.62059146e-002
      5.47063947e-002 1.11617617e-001 -1.12820923e-001 -4.36738245e-002
      -1.54698074e-001 4.77130786e-002 9.14399549e-002 -7.94405714e-002
      -4.95834388e-002 -8.94426852e-002 7.25503713e-002 -8.22960362e-002
      -1.55525818e-001 -1.36452585e-001 -3.21391225e-002 6.30762205e-002
      4.96928990e-002 -3.13521400e-002 -1.54630002e-002 8.53101760e-002
      1.27921058e-002 2.16066744e-003 -1.15600764e-003 1.61133446e-002
      5.17736152e-002 -1.23961912e-002 -2.33943202e-002 -4.27582785e-002
      -1.31630218e-002 -5.54482490e-002 -4.38515507e-002
      -1.40090570e-001 1.42491013e-002 4.74590547e-002 -5.58664873e-002
      -8.11004043e-002 -1.15064107e-001 1.43561065e-002 -7.23841265e-002
      -1.34512872e-001 -2.25431751e-002 1.13784216e-001 1.19710304e-001
      -5.38367070e-002 2.67419610e-002 -9.44324434e-002 1.02461001e-003
      -1.64908707e-001 2.59534717e-002 -6.71892613e-002 1.67764664e-001
      -3.90045554e-003 2.97255144e-002 5.27879186e-002 -5.50191402e-002
      -1.06472299e-001 -1.84855178e-001 -7.89301172e-002
      -1.28417030e-001 6.56908005e-002 1.54101141e-002 -3.55605483e-002
      -8.03910010e-003 -4.41018157e-002 -3.46964365e-003
      -1.11543335e-001 -6.70531020e-002 -4.64621074e-002
      -5.11632375e-002 -7.89854024e-003 -1.09514780e-002 8.82476568e-002
      -1.66409642e-001 8.92178807e-003 -2.83715352e-002 1.43671483e-001
      2.51663337e-003 9.19977278e-002 3.15420120e-003 5.98297678e-002
      4.33802493e-002 -1.27987772e-001 1.41750192e-002 1.90223975e-003
      -5.13289496e-002 7.22919917e-003 1.31082177e-001 1.54621720e-001
      -5.12432046e-002 -8.79864022e-002 -9.77624282e-002
      -6.00205585e-002 -4.44813855e-002 7.49314204e-002 3.92125472e-002
      1.35565745e-002 -6.83605075e-002 6.27876744e-002 -7.79797733e-002
      -9.67801362e-002 -2.81512477e-002 -1.51052163e-003 9.45364833e-002
      -1.08503193e-001 -4.18948792e-002 3.97413298e-002 1.76865488e-001
      1.23501763e-001 -1.01888314e-001 2.08635232e-003 -3.77190784e-002
      6.67114407e-002 1.00460887e-001 1.94779828e-001 3.01058561e-001
      1.21871285e-001 1.20857768e-001 5.64066656e-002 3.24360915e-002
      5.99393882e-002 9.00714472e-002 1.87916875e-001 1.08080216e-001
      1.40325323e-001 4.44244128e-003 4.18508425e-002 3.36338719e-003
      2.49722768e-002 -3.05552259e-002 9.61248800e-002 -5.04317097e-002
      7.06619769e-002 -1.15139484e-002 -1.01233937e-001 9.70412511e-003
      -5.00503667e-002 -4.77308929e-002 -2.37437710e-001
      -1.27428755e-001 -5.87905981e-002 -9.45481360e-002
      -3.20055312e-003 4.73695137e-002 1.84446782e-001 1.28685862e-001
      2.42240980e-001 1.81803912e-001 1.10158361e-001 1.28067821e-001
      4.77023562e-003 -2.08249874e-003 -1.31905451e-001 -3.58212786e-003
      -8.41831565e-002 2.12257635e-002 9.34953615e-003 -6.50914162e-002
      -8.93976819e-003 -1.16051279e-001 -1.01681396e-001
      -3.83553430e-002 2.39975899e-002 -2.22108848e-002 2.78245639e-002
      -1.49914652e-001 -6.04368225e-002 3.01943384e-002 -6.59431666e-002
      1.45312166e-002 -9.58362818e-002 -2.25764327e-002 -1.44780735e-002
      -4.14809696e-002 -2.18591556e-001 -5.13045117e-002
      -3.72782126e-002 4.40870598e-002 -6.43663183e-002 -4.46192957e-002
      -2.28892062e-002 4.43722121e-002 1.72295883e-001 2.99199042e-003
      -5.06264046e-002 -4.12658509e-003 -4.07335199e-002
      -1.11203894e-001 5.73092587e-002 2.12699562e-001 1.29288826e-002
      7.52316564e-002 -1.99760441e-002 7.78916404e-002 3.66862193e-002
      6.94363518e-003 9.48537886e-002 -4.91172932e-002 -2.82236747e-002
      -1.49948895e-002 3.89047749e-002 -8.93907249e-002 -4.28124703e-002
      -2.77936831e-002 -1.05281454e-002 -1.12808533e-001
      -5.08615859e-002 3.21383737e-002 2.48804223e-002 2.60774381e-002
      -3.77086480e-003 2.59885378e-002 1.68912373e-002 5.53893223e-002
      -4.22306079e-003 6.12341687e-002 7.41733611e-002 9.49405357e-002
      -5.90413325e-002 1.48796830e-002 7.26972520e-002 -2.89757624e-002
      -1.02164023e-001 5.90081364e-002 1.60867572e-001 -5.58539480e-002
      5.16403951e-002 -7.80106410e-002 5.60150808e-003 1.87567681e-001
      -2.36584935e-002 -7.35102296e-002 4.23750654e-002 4.21697050e-002
      -1.38184186e-002 3.16054076e-002 -7.76538774e-002 -6.39633387e-002
      -2.81988941e-002 6.86672609e-003 -2.86878943e-002 -1.45812230e-002
      4.06722305e-003 -1.92462593e-001 3.41420574e-003 1.05929263e-001
      -1.40185608e-003 -1.13275340e-002 -7.95963258e-002 4.28967290e-002
      1.60531811e-002 1.72573462e-001 -1.47260323e-001 -1.57187060e-001
      6.96262792e-002 1.51855394e-001 2.44716302e-001 8.62146541e-002
      -9.58157629e-002 1.48094699e-001 1.01245850e-001 1.85757335e-002
      -3.16729434e-002 7.29375333e-002 -3.80780846e-002 1.11447982e-001
      1.87271275e-002 -1.14210680e-001 1.57413110e-002 1.31041333e-001
      -1.87075749e-001 -1.27673507e-001 -1.51794031e-001
      -1.10890577e-002 1.72956869e-001 9.52203423e-002 -5.95310181e-002
      1.18144669e-001 6.20657988e-002 -2.08076313e-002 2.50984635e-002
      8.50534141e-002 -1.12444893e-001 9.72206891e-002 3.11583355e-002
      -4.13433500e-002 8.07759017e-002 5.46027459e-002 -1.39467921e-002
      -2.21730359e-002 -2.42064409e-002 1.18729793e-001 1.93010811e-002
      -3.00037954e-002 -1.63632050e-001 -7.52134761e-003 1.18701316e-001
      -6.81672245e-002 -8.44080409e-004 -2.40742508e-002 1.26554212e-002
      4.54691537e-002 8.54653493e-002 -6.55037984e-002 1.26765847e-001
      7.19642788e-002 -9.01875943e-002 -2.52288617e-002 4.58091125e-002
      5.19766398e-002 2.56114025e-002 5.73239140e-002 -1.04978375e-001
      5.12491241e-002 1.53419256e-001 -1.65204133e-003 8.48552287e-002
      3.07221990e-002 5.77491410e-002 4.03352454e-002 5.78724220e-003
      -1.20960958e-001 2.62938738e-002 1.18048586e-001 -1.20762326e-002
      5.93757778e-002 5.09191453e-002 -7.94157945e-003 1.40823767e-001
      1.40684485e-001 -1.23972334e-001 6.46610856e-002 8.41389075e-002
      4.93661277e-002 -3.72435898e-002 -2.47086119e-002 5.76433130e-002
      -2.45591570e-002 -6.63652867e-002 -1.17371283e-001
      -4.47101705e-002 4.37901057e-002 -3.95467617e-002 8.23220015e-002
      3.11220624e-002 -2.36267876e-002 8.57920125e-002 9.62653458e-002
      -5.89288175e-002 -8.82294998e-002 6.54645115e-002 -5.03479317e-002
      -3.68483029e-002 1.66903529e-002 7.03830048e-002 1.04935877e-001
      6.57008141e-002 1.40616111e-002 -4.86532189e-002 -1.06169665e-002
      1.17336540e-002 -1.10974088e-001 -6.56432286e-002 2.24744417e-002
      -7.54502639e-002 4.45366651e-003 -1.35584762e-002 -1.09572940e-001
      -1.05111979e-001 -3.92821096e-002 1.39646940e-002 5.00387587e-002
      -2.57097334e-002 -1.10848643e-001 -1.10929653e-001
      -1.28628403e-001 -1.16833545e-001 9.14491490e-002 8.17522407e-002
      -2.40498632e-002 -7.81290606e-003 2.23610643e-002 6.21662475e-002
      1.40224293e-001 1.79568350e-001 5.30860387e-002 9.77115631e-002
      1.25077367e-001 1.55716799e-002 7.24483281e-002 -8.92482027e-002
      -3.70801240e-002 2.89395615e-003 7.37301167e-003 3.20053026e-002
      -2.67432779e-002 4.37705293e-002 5.54163679e-002 9.21970159e-002
      -1.68597270e-002 -5.54747209e-002 -1.08035371e-001
      -1.62097123e-002 1.08564086e-002 -1.59959510e-001 5.76461591e-002
      -7.08937198e-002 -3.04813329e-002 -1.23550460e-001
      -1.30384132e-001 -1.12945169e-001 3.87698822e-002 9.62172076e-003
      2.56835800e-002 1.59235433e-001 6.56419918e-002 6.07396103e-002
      8.82487595e-002 1.17790788e-001 4.26710211e-002 1.15782052e-001
      8.86502396e-003 3.30015868e-002 5.82427345e-002 3.51346433e-002
      -1.61393918e-002 -6.18185382e-003 6.84213340e-002 -1.27645522e-001
      6.40883148e-002 -2.93543600e-002 -3.42128687e-002 5.15871271e-002
      7.31232949e-003 -1.57836676e-002 5.48825078e-002 4.40530442e-002
      -1.03983670e-001 8.82743001e-002 8.04233924e-002 -3.36626396e-002
      2.35511046e-002 -1.38306409e-001 -1.01429835e-001 5.65114804e-002
      -8.37959647e-002 -2.69450068e-001 2.83340923e-002 2.81029064e-002
      7.13254809e-002 4.65817079e-002 -9.40875243e-003 4.43372503e-002
      3.87344733e-002 1.49436206e-001 -1.11269593e-001 6.75330758e-002
      -6.83730468e-002 -1.87269263e-002 3.25533338e-002 -9.48731005e-002
      -1.95407006e-003 -9.08167660e-002 -1.07652722e-002
      -1.40947223e-001 5.73077947e-002 -8.30511227e-002 2.76712584e-003
      1.57398403e-001 -9.35997348e-003 6.67186826e-002 6.49758130e-002
      6.19822070e-002 -1.07896812e-001 1.17580323e-002 4.60174680e-002
      3.02981343e-002 -6.49164058e-003 -1.12855613e-001 2.41834391e-002
      -3.78381461e-002 3.54041010e-002 5.20980805e-002 7.36312270e-002
      -6.99037611e-002 6.10923991e-002 1.15522295e-001 5.36654182e-002
      1.20297916e-001 -5.51025048e-002 1.44220829e-001 2.72084344e-002
      7.84747973e-002 -1.04249030e-001 -3.37759685e-003 -4.27190866e-003
      4.88482229e-002 -4.15977910e-002 -2.57562082e-002 1.06124140e-001
      1.49241775e-001 7.36918896e-002 4.64383550e-002 6.72018453e-002
      1.21385239e-001 -2.03546900e-002 1.06297649e-001 -5.56492023e-002
      2.97842231e-002 1.77519590e-001 1.60326406e-001 -4.17564530e-003
      -4.03742604e-002 2.43159123e-002 -2.57271975e-002 3.86397354e-002
      -3.65949459e-002 1.53472030e-003 -6.88686501e-004 -5.05916448e-003
      -7.90235698e-002 2.08072439e-002 1.16582945e-001 2.97245346e-002
      9.11397074e-005 -6.18168414e-002 -1.90254953e-002 9.06727389e-002
      4.64228913e-002 6.55401573e-002 -2.81815808e-002 9.66554433e-002
      -1.50331983e-003 7.19757611e-003 -9.81500894e-002 -1.10995710e-001
      3.39262448e-002 3.48810703e-002 -7.91884810e-002 -4.78145815e-002
      -4.94447574e-002 2.01667268e-002 -1.30322354e-003 -2.31859833e-002
      -1.80002786e-002 1.35604059e-002 1.90490540e-002 9.42197070e-003
      -2.39653647e-001 -4.75756824e-003 -1.11257888e-001
      -2.64666937e-002 6.21419325e-002 4.21304181e-002 -1.17513306e-001
      4.49303426e-002 -1.24987423e-001 -2.66996510e-002 6.41333982e-002
      1.21310446e-002 -4.65860441e-002 5.93792787e-003 -2.91081574e-002
      9.69287008e-002 6.77229837e-002 -7.70500153e-002 -7.83236399e-002
      -2.73616463e-002 -1.29747197e-001 -1.16038822e-001 2.59952284e-002
      -1.49401091e-003 4.86045144e-002 4.37110104e-002 -9.23312753e-002
      -1.82563379e-001 1.21998444e-001 -4.94868355e-003 -7.71933198e-002
      -1.32512942e-001 -1.30930385e-002 -1.41661718e-001 9.99946222e-002
      -9.09137875e-002 -2.25811034e-001 -1.49139306e-002
      -1.45509437e-001 -4.53125872e-002 -1.29617974e-001
      -8.48201215e-002 -7.59285465e-002 -1.02104932e-001
      -2.00875774e-001 -3.12292390e-002 7.04502612e-002 -1.00160375e-001
      -4.12608720e-002 8.04883093e-002 6.40785471e-002 9.46834832e-002
      1.47490695e-001 -2.68896893e-002 1.83884744e-002 4.38863821e-002
      -8.71701166e-003 2.29124110e-002 -4.34367880e-002 -4.87280339e-002
      6.83076447e-003 1.13431074e-001 -7.23621920e-002 -1.34757057e-001
      7.94036761e-002 4.88425745e-003 2.56260876e-002 -8.67432132e-002
      1.11770026e-001 1.60555616e-002 1.24487542e-002 -9.80548039e-002
      2.93012168e-002 1.33897915e-001 -1.96921360e-002 -4.99629453e-002
      -5.87195083e-002 2.02524558e-001 5.96685641e-005 5.36904521e-002
      -6.84786737e-002 7.30440542e-002 -3.29970792e-002 -6.47507831e-002
      3.55914123e-002 1.55955390e-003 -4.79662158e-002 7.36450031e-003
      1.30706936e-001 -2.09056213e-003 -6.89149601e-003 -4.74333502e-002
      -9.13975984e-002 -4.04308364e-002 -9.59353745e-002 4.40395363e-002
      2.11464427e-002 6.73659369e-002 -7.23064393e-002 1.14683531e-001
      2.11410493e-001 3.01855356e-002 1.12450898e-001 -8.45015235e-003
      2.22185746e-001 -4.31333557e-002 1.13765717e-001 4.82424051e-002
      -4.10562158e-002 4.34960388e-002 -6.93221912e-002 4.15786058e-002
      -1.22638650e-001 -3.81726809e-002 -4.75435853e-002
      -5.46776503e-003 1.18778348e-001 7.43759871e-002 3.93072441e-002
      -1.17155850e-001 9.26454812e-002 -6.85430914e-002 2.49006171e-002
      -1.73131246e-002 1.64415725e-002 -8.63701701e-002 -2.50842911e-003
      3.13001908e-002 -1.66138053e-001 -7.57679669e-003 -9.32228267e-002
      -8.47842246e-002 -4.86195162e-002 1.81693863e-002 -7.90287033e-002
      -3.99207585e-002 -6.57564634e-003 -1.19679928e-001 8.32795799e-002
      -5.37574105e-002 1.71355113e-001 6.77941293e-002 -2.09234729e-002
      1.55054688e-001 -3.49990241e-002 -1.30103687e-002 1.35675143e-003
      2.85094362e-002 -1.14873916e-001 1.10124081e-001 2.91816015e-002
      -4.06113639e-002 -3.70862111e-002 5.90377934e-002 -8.98282137e-003
      -1.23155169e-001 2.54728179e-002 -6.20597899e-002 4.10377271e-002
      -3.50530967e-002 9.20914933e-002 8.04817602e-002 3.56103331e-002
      -8.81946608e-002 -3.64361927e-002 -2.89618932e-002
      -1.64094195e-001 -8.62523541e-003 3.99816260e-002 -5.01472540e-002
      6.38431534e-002 3.73202488e-002 4.57419306e-002 2.26635579e-002
      2.44244579e-002 -4.56424616e-003 -1.72571465e-003 -1.34593546e-002
      -2.64728945e-002 -7.70817399e-002 6.73527718e-002 7.56490603e-002
      -3.86937521e-002 -2.45588832e-003 8.43196586e-002 2.58067921e-002
      6.27783872e-003 8.79053101e-002 1.49953132e-002 1.27622873e-001
      -3.85558531e-002 -4.21870463e-002 -1.31907299e-001 2.66350526e-002
      2.68992241e-002 2.78905090e-002 -4.93166447e-002 1.58593863e-001
      3.33003663e-002 5.66221699e-002 -2.47566402e-002 1.84575617e-002
      -2.07368582e-002 2.57971752e-002 8.36329535e-002 7.01094493e-002
      -5.97801283e-002 5.29724583e-002 -1.62831508e-002 -3.40208970e-002
      -1.49044052e-001 -1.74589679e-002 -6.94738626e-002 1.22277802e-002
      -3.18766050e-002 2.21978091e-002 4.61199619e-002 -1.86395228e-001
      -3.02281827e-002 5.93894087e-002 5.94890602e-002 1.83342141e-003
      -7.33182877e-002 -1.75125692e-002 1.12061435e-002 1.25090033e-002
      -4.26472872e-002 3.23197828e-003 -2.00192016e-002 5.54682277e-002
      -3.04333325e-002 -7.97222331e-002 -4.29621562e-002
      -5.51234484e-002 -2.46792100e-003 -1.57049984e-001
      -1.77534334e-002 4.27138917e-002 -8.16376600e-003 -2.05971181e-001
      -1.74638584e-001 -1.34369895e-001 -2.24011857e-002 1.01098128e-001
      -1.16000757e-001 -7.22105708e-003 -6.22082390e-002 1.52897373e-001
      1.65113777e-001 9.38389301e-002 -4.88270298e-002 1.54818013e-001
      -3.54121216e-002 -3.95755991e-002 9.55085158e-002 1.11443274e-001
      -1.29001383e-002 1.07094683e-001 4.95907031e-002 -5.13650775e-002
      2.46593896e-002 1.48632318e-001 6.69231080e-003 3.92725691e-002
      -6.48192270e-003 -7.26239234e-002 1.66553378e-001 1.56909719e-001
      1.44215999e-003 1.57853872e-001 1.19674571e-001 1.47421202e-002
      -1.02322837e-002 9.15895682e-003 7.67139671e-003 -4.29039448e-002
      -4.03523743e-002 1.21986784e-001 2.26567850e-001 5.87723404e-002
      -1.40147535e-002 4.37132046e-002 1.80100277e-001 1.34957656e-001
      1.04982600e-001 8.52111652e-002 5.41126635e-003 1.08949274e-001
      1.26338944e-001 8.48047286e-002 1.56557396e-001 1.23227566e-001
      1.88343570e-001 4.25164141e-002 2.25353967e-002 -5.22887893e-002
      3.69703434e-002 7.59238005e-002 -5.20567372e-002 -1.71354432e-002
      8.59679431e-002 1.44606695e-001 -6.55077547e-002 -1.15431674e-001
      2.75910869e-002 1.76044524e-001 6.48111179e-002 -3.41761741e-003
      1.36605278e-002 6.91480339e-002 1.71202421e-001 -7.58663863e-002
      -1.10277005e-001 -1.54841319e-001 3.21046002e-002 6.79446906e-002
      3.96159925e-002 8.27626884e-002 1.31439501e-002 2.64719501e-002
      8.44002441e-002 1.80689037e-001 -1.42825339e-002 -8.63989722e-003
      3.88108678e-002 -2.48163985e-003 -6.04462288e-002 -6.12475304e-003
      9.52548757e-002 5.24811037e-002 1.03074260e-001 1.40719607e-001
      -5.42720482e-002 -3.77986277e-003 -4.88494858e-002
      -1.94297303e-002 4.47515212e-002 7.27232322e-002 -1.32819965e-001
      -1.28077269e-001 -1.76939875e-001 7.61162676e-003 6.34802580e-002
      2.50545479e-002 1.94823910e-002 3.05214860e-002 1.23203285e-001
      5.58550246e-002 5.93363028e-003 1.03942931e-001 1.94246083e-001
      3.95074859e-002 -1.11279974e-003 -1.07381321e-001 -9.20422077e-002
      -9.09144133e-002 -4.14556712e-002 6.89272955e-002 2.09426835e-001
      -2.02389099e-002 3.54752094e-002 8.69971793e-003 -2.71506831e-002
      -3.44797373e-002 -1.99981391e-001 -8.79984424e-002
      -1.53911799e-001 -1.66774094e-001 -7.30979741e-002 2.23109778e-003
      6.23952411e-002 -1.22826986e-001 -7.26905689e-002 4.56414483e-002
      -4.53392938e-002 5.90321235e-002 2.08879858e-001 1.22368366e-001
      -1.18121020e-002 -4.83709872e-002 -2.89918343e-003
      -8.14323723e-002 7.78504312e-002 -5.74105186e-003 -2.78145168e-002
      9.24905315e-002 1.09965958e-001 -6.25837827e-003 4.15488221e-002
      5.38501330e-002 4.10407811e-004 -8.79195333e-003 -7.91215450e-002
      -1.08463272e-001 -6.68572336e-002 -7.09280372e-002
      -7.89544135e-002 4.76559214e-002 -1.96112413e-002 -3.04484051e-002
      -8.00133944e-002 4.17284817e-002 -1.05664238e-001 6.18653595e-002
      -1.35110527e-001 5.90162389e-002 1.72534652e-004 2.17655506e-002
      -3.03615965e-002 1.37546882e-001 3.70407365e-002 -7.93530568e-002
      6.62342533e-002 1.60267130e-002 -3.72897573e-002 1.55310193e-002
      -7.25754350e-002 1.18415974e-001 5.37245199e-002 -4.09750715e-002
      -1.47889644e-001 2.02380270e-002 7.12853223e-002 2.72454787e-002
      3.92988808e-002 -8.93476903e-002 3.25885676e-002 7.55594000e-002
      1.04610220e-001 -7.90504292e-002 7.57651702e-002 7.73502607e-003
      -8.33926350e-002 7.82512873e-002 -1.58702254e-001 -5.73011972e-002
      -1.02852613e-001 -8.38146135e-002 -1.03670582e-001 8.52841809e-002
      -8.98770615e-002 -4.63465452e-002 5.98432012e-002 -4.28293012e-002
      1.99918926e-001 1.10540122e-001 8.94759446e-002 -8.15715361e-003
      4.23841178e-002 6.78078160e-002 4.63241991e-003 2.79605831e-003
      -1.49343029e-001 -5.83482198e-002 3.66586000e-002 -9.06115845e-002
      -3.75402048e-002 1.38743266e-001 7.94126391e-002 -3.49261537e-002
      1.16567031e-001 1.54792089e-002 1.41817436e-001 -1.68630164e-002
      1.02286637e-001 9.74439010e-002 1.39396250e-001 -5.21956012e-002
      -6.46934062e-002 -3.23134027e-002 3.65168862e-002 -8.66543576e-002
      -8.25966671e-002 5.02880253e-002 9.67311338e-002 8.24879929e-002
      5.51307611e-002 5.10054007e-002 9.51752290e-002 1.69980377e-002
      6.27297759e-002 1.39350727e-001 1.11045383e-001 1.35537207e-001
      1.89850464e-001 1.58067852e-001 -2.39182655e-002 2.13965736e-002
      -7.18324259e-003 -1.12820417e-001 5.57839610e-002 4.25076261e-002
      1.24047592e-001 1.37119666e-001 5.32995872e-002 1.82616413e-002
      6.87389374e-002 6.49676621e-002 -3.69023308e-002 -6.77934662e-002
      -1.02912216e-002 4.99429181e-002 9.90633368e-002 2.04505339e-001
      -5.80845550e-002 1.50188599e-002 -2.60100458e-002 -2.10939925e-002
      -4.80977558e-002 -3.61742079e-002 5.05678989e-002 -2.81916861e-003
      -1.13954535e-002 -3.38122132e-003 9.31628123e-002 1.93756502e-002
      -8.39451328e-002 1.68358441e-002 6.29490539e-002 3.35070454e-002
      4.42194603e-002 1.01247497e-001 -5.63906319e-002 9.26886797e-002
      -1.27420174e-002 -7.22099319e-002 -3.44058797e-002 5.52966632e-003
      2.07192190e-002 -6.81014806e-002 -7.13021727e-003 -9.03679952e-002
      2.98967902e-002 1.83607433e-002 -1.03420638e-001 5.56672253e-002
      -4.71046306e-002 3.05625927e-002 -2.25889459e-002 1.12025803e-002
      1.86842587e-002 -2.88074147e-002 -8.29542875e-002 -2.01721340e-002
      5.73400855e-002 -8.03394690e-002 -3.42396162e-002 -5.40760718e-002
      -8.90029944e-004 4.02979292e-002 1.17185991e-002 6.10382557e-002
      -2.12755147e-002 1.06923714e-001 8.11686274e-003 -8.72233734e-002
      -1.63246334e-001 -6.21439628e-002 3.80550362e-002 -2.07479717e-003
      3.64956904e-005 1.03993669e-001 1.53005928e-001 4.35109809e-002
      -4.17782813e-002 -1.99400231e-001 -7.89506212e-002
      -5.26508428e-002 4.57736589e-002 -5.84895350e-002 -6.68616919e-003
      2.79368348e-002 2.03088974e-003 4.45840694e-002 1.91214122e-002
      2.00228337e-002 -1.45214116e-002 -1.67220160e-002 -3.44560407e-002
      -1.20386807e-003 -9.57355797e-002 1.93683114e-002 -8.92544761e-002
      4.64461707e-002 -1.76211204e-002 8.31743926e-002 5.93073629e-002
      -1.34062886e-001 8.99168923e-002 2.09095418e-001 7.11319521e-002
      1.86777189e-002 -4.24039587e-002 -6.60787709e-003 -1.02147676e-001
      -9.09397658e-003 -2.61021078e-001 -8.91165286e-002 1.68866590e-002
      -8.03826600e-002 -2.25927815e-001 3.32264230e-002 1.37447240e-002
      4.14589532e-002 6.33162353e-003 -2.69221030e-002 6.76069781e-002
      -6.45770356e-002 7.25618973e-002 -5.09273298e-002 1.56290874e-001
      -1.19644552e-002 -7.91845173e-002 -8.72718170e-002
      -5.60054593e-002 -2.72796452e-002 -1.58313408e-001 2.49658693e-002
      -7.27103204e-002 -2.29493156e-002 -1.73746973e-001
      -6.28164187e-002 3.11067491e-003 -2.49676913e-001 2.34589372e-002
      1.41666040e-001 -2.36627478e-002 -1.53147355e-001 4.51973490e-002
      -8.30444545e-002 -1.41890883e-001 2.83797998e-002 -3.14059332e-002
      -8.18138868e-002 -3.21626514e-002 -5.21751232e-002
      -1.64175823e-001 -5.45808375e-002 -9.69063267e-002 6.88858256e-002
      1.14998624e-001 4.96507548e-002 9.66890752e-002 2.59159096e-002
      3.09574902e-002 -4.80764769e-002 6.26357971e-003 -1.12617902e-001
      -4.22012247e-002 1.05042711e-001 -6.42160028e-002 4.38275076e-002
      -7.54887015e-002 -1.12239704e-001 -1.85719933e-002
      -6.95291683e-002 -1.25063896e-001 2.76026130e-002 -2.53024884e-002
      -7.53931627e-002 -3.42331864e-002 1.95895042e-002 -6.01012111e-002
      -1.09938458e-001 3.78571153e-002 -7.18463883e-002 -2.50704261e-003
      -4.50932793e-002 -5.63681796e-002 -2.90751699e-002 1.26240656e-001
      -5.99431843e-002 -5.06194420e-002 -1.27396896e-001
      -1.04570284e-001 -1.02519458e-002 7.46189654e-002 -5.82622439e-002
      4.93805930e-002 -6.42033145e-002 8.98563303e-003 -5.46990568e-003
      -2.34470656e-003 6.48564752e-003 -4.43724804e-002 -5.58337830e-002
      -1.31500163e-003 3.02953105e-002 -4.76224609e-002 4.29901406e-002
      -1.91154070e-002 -1.70356557e-001 -1.54853344e-001 5.43626305e-003
      -4.08329405e-002 -1.11577235e-001 6.16245307e-002 -1.94047820e-002
      -4.56188880e-002 5.98016307e-002 -6.57155961e-002 -8.61811191e-002
      -1.87729284e-001 -6.22726344e-002 -1.09941489e-003 3.05977613e-002
      -1.11094609e-001 1.50079072e-001 2.68224310e-002 -1.66326135e-001
      -1.90056726e-001 -6.25491813e-002 -3.56989279e-002
      -2.84778699e-002 -9.48503315e-002 1.61834564e-002 7.95952305e-002
      -3.34502081e-003 -4.84698303e-002 -2.65300889e-002
      -8.31699222e-002 -3.03113721e-002 1.28466301e-002 2.70435326e-002
      -1.08252905e-001 1.73876807e-001 6.02039099e-002 4.93300036e-002
      -1.36172459e-001 -8.90967399e-002 -6.72369748e-002
      -5.53069711e-002 -1.39430389e-001 -8.68879110e-002 3.00856456e-002
      -2.92865708e-002 -7.78772384e-002 -5.54272681e-002
      -7.26258662e-003 6.05279021e-002 4.91579697e-002 -1.01095729e-001
      -8.50649700e-002 5.22282235e-002 -8.90801400e-002 -1.40691742e-001
      8.21690168e-003 -5.96965849e-002 -3.02014723e-002 5.15167117e-002
      1.15676336e-001 5.47198839e-002 1.04512729e-001 -3.38711170e-003
      3.41801643e-002 -1.23697206e-001 -1.03143625e-001 -1.69558316e-001
      -1.54536860e-002 1.35314807e-001 6.96530417e-002 -8.50349888e-002
      -9.91783440e-002 -9.91586670e-002 -1.01249710e-001
      -9.94801894e-003 -5.00101261e-002 3.58041637e-002 -1.57251731e-002
      1.02253526e-001 -7.80410990e-002 -2.12561134e-002 -5.69368154e-002
      3.92416455e-002 -7.68448263e-002 -3.40005547e-001 -2.63512909e-001
      7.30624720e-002 -4.27002609e-002 -2.62469918e-001 -1.88310176e-001
      -2.25218654e-001 -1.97349978e-003</_></support_vectors>
  <decision_functions>
    <_>
      <sv_count>1</sv_count>
      <rho>1.0413568298881115e+000</rho>
      <alpha>
        1.</alpha>
      <index>
        0</index></_></decision_functions></my_svm>
</opencv_storage>
